[array([[-4.94247017e+01,  3.77528992e+01,  2.35030537e+01,
        -9.34290981e+00,  2.90860500e+01,  5.26478043e+01,
         5.45901451e+01,  2.27927475e+01, -1.78543873e+01,
        -8.37231293e+01],
       [ 4.77288322e+01, -3.83969116e+01, -3.23836250e+01,
         2.46447868e+01, -4.67691917e+01, -3.42319717e+01,
        -1.73672981e+01, -3.61672058e+01, -4.27178650e+01,
         1.73477211e+01],
       [ 1.08703594e+01,  5.08097839e+00, -3.77574387e+01,
         2.92315149e+00, -1.51530724e+01, -1.41159420e+01,
        -1.60982208e+01, -9.37076449e-01, -1.38029633e+01,
         2.44713745e+01],
       [ 6.42368889e+00,  1.51557598e+01,  1.00434074e+01,
        -7.85387897e+00, -1.53314638e+00,  4.26387459e-01,
         8.22488117e+00,  5.96996975e+00,  9.75369263e+00,
        -1.66495728e+00],
       [-2.96957893e+01, -6.11308136e+01, -3.47107315e+01,
        -1.66930981e+01, -6.89440775e+00, -2.03974495e+01,
        -3.01749268e+01, -6.59344864e+01, -2.84827690e+01,
         2.34811068e+00],
       [-2.28841686e+01,  9.03004608e+01,  5.52373390e+01,
         1.43663206e+01,  7.08834982e+00, -2.09309745e+00,
         4.03134270e+01, -3.92544785e+01,  8.88016586e+01,
        -1.86003189e+01],
       [ 3.65499268e+01, -8.64379883e+01,  2.67082996e+01,
        -2.17702446e+01, -3.59415793e+00,  6.80149508e+00,
        -2.60129585e+01,  2.49751377e+01,  3.13026466e+01,
        -2.89816132e+01],
       [-1.21228991e+01, -3.46587715e+01, -8.47620010e+00,
        -4.19592590e+01, -1.63552055e+01, -1.46684599e+01,
         6.35765076e+00, -5.23892784e+01,  2.25232525e+01,
        -2.38452454e+01],
       [-3.59631753e+00, -4.20028038e+01,  1.65760727e+01,
        -1.87184753e+01,  8.85919952e+00, -3.64523811e+01,
         9.42891777e-01, -7.30324326e+01,  1.88208854e+00,
        -1.25040693e+01],
       [ 2.32151222e+01, -1.42744780e+00,  9.97381401e+00,
        -3.45507360e+00, -1.15940886e+01, -2.55133572e+01,
        -2.20629635e+01, -2.54372597e+01,  3.75955124e+01,
         1.45633192e+01],
       [ 1.46288335e+00,  5.35881281e+00,  1.15007734e+00,
         1.69332409e+00,  1.21677375e+00, -3.19398952e+00,
         9.89003599e-01,  8.94406557e-01, -2.21306181e+00,
        -2.07863808e-01],
       [-1.98987949e+00, -8.99737930e+00,  5.10122967e+00,
         3.96750283e+00, -1.64444435e+00,  3.89488697e+00,
         1.16124897e+01, -1.72596169e+00,  6.02672815e+00,
        -6.65438652e-01],
       [-2.45318508e+00,  5.18997383e+00,  1.57433581e+00,
        -1.44109905e+00,  1.92037606e+00,  5.19403744e+00,
        -1.66755855e+00,  2.10160041e+00,  5.29721558e-01,
         2.74388641e-01],
       [-1.44225502e+00,  2.48262808e-01, -2.12524652e+00,
        -5.74261546e-01,  8.82464314e+00,  2.11295557e+00,
         6.48752022e+00,  4.34975243e+00, -1.64063945e-02,
        -7.05998361e-01],
       [ 5.22201240e-01,  3.64084411e+00,  2.52290583e+00,
         6.12701535e-01, -5.46712780e+00, -2.34298587e+00,
         2.33143997e+00, -1.28393352e+00, -1.26482487e+00,
         2.39681864e+00],
       [-6.06500435e+00, -1.13644152e+01,  1.32531796e+01,
         4.14040804e+00,  1.97671127e+01, -3.48930240e+00,
         4.69577980e+00, -2.17200851e+01, -9.24220467e+00,
        -1.51211510e+01],
       [ 1.07806311e+01, -1.27477112e+01, -9.41996515e-01,
        -2.63952684e+00, -2.47930765e+00, -8.14826012e+00,
        -9.26878262e+00,  1.62903321e+00,  1.36948242e+01,
         3.02983284e+00],
       [ 7.22818708e+00, -1.67877901e+00,  4.83392334e+00,
        -1.88336694e+00, -3.29867864e+00, -1.38143981e+00,
         3.84521675e+00,  5.59795618e+00, -6.14194345e+00,
         8.65033388e-01],
       [ 3.25253797e+00, -6.82043612e-01, -1.49048281e+00,
        -1.75381005e+00, -5.53492928e+00, -2.66772342e+00,
        -3.45440626e+00, -3.14952898e+00,  6.55254602e+00,
         1.32254231e+00],
       [ 1.73877287e+00, -1.13257098e+00,  9.08428288e+00,
        -2.12426686e+00,  3.10465527e+00, -1.08113956e+01,
        -1.90038478e+00, -5.29227614e-01, -4.12236404e+00,
         3.13725281e+00],
       [-1.08062544e+01,  6.50196648e+00, -2.24519897e+00,
        -1.12511718e+00,  3.18085933e+00,  7.70610762e+00,
         9.65365791e+00, -7.08687246e-01, -7.70266962e+00,
        -1.18640499e+01],
       [ 2.71363497e+00,  7.89489937e+00,  5.48929024e+00,
        -1.47098279e+00, -3.97133541e+00, -1.17465127e+00,
        -6.26613319e-01,  1.38584420e-01,  2.99197793e+00,
        -4.28585052e+00],
       [ 2.18553710e+00, -4.75537539e+00,  7.31162024e+00,
        -2.92394423e+00, -1.06995611e+01, -2.87151605e-01,
         4.08404589e+00, -1.88991725e+00,  6.92002535e+00,
        -1.67135084e+00],
       [ 1.02715960e+01, -3.20639992e+00,  2.06174421e+00,
        -2.63647485e+00,  3.73254269e-01, -8.52488399e-01,
        -2.15921140e+00,  3.87750912e+00,  2.68807292e+00,
        -4.74816227e+00],
       [ 4.93599224e+00,  2.06443000e+00,  1.52966821e+00,
         4.37014771e+00,  6.59089744e-01, -2.03272247e+00,
         7.54856765e-01, -5.03159702e-01,  2.21247983e+00,
         2.56897187e+00],
       [ 3.79629350e+00, -5.01240063e+00,  2.39755797e+00,
        -4.10472631e+00, -1.01522887e+00, -2.13244748e+00,
         5.62720776e+00, -5.31937456e+00, -1.21044521e+01,
        -5.11590862e+00],
       [ 5.46057549e+01,  3.13545704e+01, -4.98067436e+01,
         6.07605667e+01, -5.64785347e+01, -5.85845299e+01,
        -5.02811050e+01, -5.75301628e+01, -4.68841782e+01,
         6.57965775e+01],
       [-4.81619310e+00,  1.08303680e+01,  2.66197348e+00,
        -4.15690184e+00,  1.48638999e+00, -4.74662590e+00,
         1.36744118e+00,  1.79440475e+00,  3.86360884e+00,
         3.57222915e+00],
       [ 3.94391704e+00,  3.15842843e+00,  9.31220800e-02,
        -4.41155624e+00,  3.62060452e+00,  2.72931957e+00,
         4.39078283e+00,  2.54445100e+00, -6.91374588e+00,
        -5.23217678e+00],
       [ 3.65425944e+00, -3.16983366e+00,  7.88140917e+00,
        -2.75818825e+00,  7.34171391e-01, -3.65681434e+00,
         2.05079532e+00, -3.64319777e+00,  4.50479889e+00,
         1.23229635e+00],
       [ 1.87286663e+00, -7.08717775e+00, -4.41644430e+00,
        -2.63587594e+00,  3.94916415e+00, -8.97631705e-01,
        -5.03685713e+00, -5.07664776e+00,  2.49366832e+00,
        -3.56582022e+00],
       [ 6.63309479e+01,  2.98344784e+01, -4.27509499e+01,
         4.00541611e+01, -6.62010345e+01, -6.34614754e+01,
        -5.11418533e+01, -6.69893494e+01, -4.25363960e+01,
         4.51520958e+01],
       [-5.23389435e+00, -2.05047584e+00, -8.44362915e-01,
        -2.50292808e-01,  3.21096087e+00,  2.53212857e+00,
         2.59582901e+00,  1.52236784e+00,  6.77409172e+00,
        -3.18096805e+00],
       [ 8.00015450e+00,  3.55287476e+01, -1.04402370e+01,
         4.00448990e+00, -9.79986000e+00, -4.07029057e+00,
        -2.60446491e+01, -1.12525864e+01, -3.85651512e+01,
         2.64399290e+00],
       [ 5.73746026e-01,  2.84610128e+00, -4.89199066e+00,
         1.30869853e+00, -4.89673328e+00, -1.41789961e+00,
        -3.71275926e+00, -4.36900496e-01,  8.24179840e+00,
         3.28389764e+00],
       [-6.98960543e+00,  2.14063692e+00,  3.81574941e+00,
         1.08512044e+00,  7.14951372e+00,  6.05367613e+00,
         8.08172035e+00,  2.31328654e+00, -9.02971745e+00,
        -1.13752079e+00],
       [ 5.79534836e+01,  2.66621304e+00, -5.29355087e+01,
         6.47674255e+01, -5.55167847e+01, -5.72515259e+01,
        -5.57563820e+01, -5.72810974e+01, -5.14102173e+01,
         6.26219826e+01],
       [ 1.44637442e+01,  1.67659969e+01,  3.53043461e+00,
        -1.35928488e+01, -3.87059283e+00, -1.20574360e+01,
         7.06383467e+00, -3.95770621e+00,  7.91433096e+00,
        -1.10005465e+01],
       [ 3.53851104e+00,  2.81446457e+00,  1.18948102e+00,
         2.24996045e-01, -2.50472546e+00, -4.25121593e+00,
         8.24475944e-01, -3.91407084e+00, -6.66529298e-01,
         9.32596445e-01],
       [ 6.01951540e-01,  1.13524699e+00,  1.98365104e+00,
        -4.74777222e-01,  1.88122630e-01, -8.66701424e-01,
         1.93524468e+00, -1.13037691e-01,  4.79725689e-01,
        -1.01602328e+00],
       [ 1.99859929e+00,  3.08890009e+00,  2.97613668e+00,
        -1.49605107e+00, -1.98284793e+00, -1.22972929e+00,
         1.21819758e+00, -2.57075071e+00, -2.72751242e-01,
        -1.67229438e+00],
       [-5.19498491e+00,  1.01719227e+01, -6.33555841e+00,
        -8.11861191e+01,  1.77090895e+00,  3.97820771e-01,
        -1.70561028e+01, -1.90707815e+00,  1.18329964e+01,
        -4.05533180e+01],
       [-1.41202107e-01,  1.08582117e-01, -8.77770185e-02,
         1.84538901e-01, -5.15572190e-01, -8.17457810e-02,
         2.99288500e-02,  1.37468100e-01, -3.28901768e-01,
        -4.86156166e-01],
       [ 3.08868200e-01, -5.92838526e-01, -4.29807723e-01,
         1.13373011e-01,  5.57822704e-01, -1.61097392e-01,
        -7.24884808e-01, -1.00151040e-01,  7.78472841e-01,
         4.97158855e-01],
       [-5.98687567e-02, -2.36974061e-02,  6.23160377e-02,
         2.75294259e-02,  1.74900256e-02,  4.57965881e-02,
        -4.42909561e-02,  1.85537022e-02,  2.82785445e-02,
         6.05630018e-02],
       [-3.60180549e-02,  7.09145641e+00, -4.07018960e-01,
         5.16947471e-02,  3.01941246e-01,  2.94653028e-01,
         6.27555996e-02,  5.98867312e-02, -1.84007268e-02,
         2.39906862e-01],
       [ 1.15125132e+01,  2.43211913e+00,  5.42445135e+00,
        -4.74145794e+00,  4.13145208e+00,  2.41848268e-02,
        -7.12893534e+00,  9.72405374e-01,  2.78248119e+01,
        -6.85670471e+00],
       [ 3.62725830e+01,  7.61417198e+00, -3.44818535e+01,
         3.85601044e+01, -3.51157455e+01, -3.51958122e+01,
        -3.75953369e+01, -3.64915504e+01, -3.50507698e+01,
         3.48304710e+01],
       [ 1.08033905e+01,  2.94504280e+01,  4.62710609e+01,
         6.79801702e+00,  1.58393984e+01,  5.44471073e+00,
         3.45664215e+00,  1.54360218e+01,  1.66091537e+01,
        -5.07141352e+00],
       [-1.53725395e+01, -7.11775303e+00,  1.09175053e+01,
         4.76962519e+00, -2.53121543e+00,  1.13158906e+00,
         9.06746101e+00, -2.31828918e+01, -8.76028728e+00,
         6.65707159e+00]], dtype=float32), array([ 0.7285269 ,  0.19957359,  0.7659897 , -0.72583705, -0.87396765,
       -1.6011868 ,  1.1564907 , -1.5435506 ,  0.03554644, -0.4316376 ],
      dtype=float32), array([[ -7.524143 ,  -5.9116096,   6.161661 ],
       [ -3.5494246,  -3.7698395,   3.2610307],
       [ -3.3320448,   3.2361841,  -2.303994 ],
       [ -5.0428267, -15.451602 ,  16.007708 ],
       [ -2.270224 ,   3.3171449,  -1.8754146],
       [ -2.246239 ,   5.5369024,  -5.4112945],
       [ -1.4659078,   4.3690476,  -4.260331 ],
       [ -3.2967317,  10.908941 , -11.368749 ],
       [ -5.137974 ,   3.672137 ,  -2.761997 ],
       [ -2.5489311,  -5.6805973,   6.1607194]], dtype=float32), array([-3.453474  , -0.20111826,  0.4920886 ], dtype=float32)]