[[-49.4247016907,37.7528991699,23.5030536652,-9.3429098129,29.0860500336,52.6478042603,54.5901451111,22.7927474976,-17.8543872833,-83.7231292725],[47.7288322449,-38.3969116211,-32.3836250305,24.6447868347,-46.7691917419,-34.2319717407,-17.3672981262,-36.1672058105,-42.7178649902,17.3477210999],[10.8703594208,5.0809783936,-37.7574386597,2.9231514931,-15.1530723572,-14.1159420013,-16.0982208252,-0.9370764494,-13.8029632568,24.4713745117],[6.4236888885,15.1557598114,10.0434074402,-7.8538789749,-1.5331463814,0.4263874590,8.2248811722,5.9699697495,9.7536926270,-1.6649572849],[-29.6957893372,-61.1308135986,-34.7107315063,-16.6930980682,-6.8944077492,-20.3974494934,-30.1749267578,-65.9344863892,-28.4827690125,2.3481106758],[-22.8841686249,90.3004608154,55.2373390198,14.3663206100,7.0883498192,-2.0930974483,40.3134269714,-39.2544784546,88.8016586304,-18.6003189087],[36.5499267578,-86.4379882812,26.7082996368,-21.7702445984,-3.5941579342,6.8014950752,-26.0129585266,24.9751377106,31.3026466370,-28.9816131592],[-12.1228990555,-34.6587715149,-8.4762001038,-41.9592590332,-16.3552055359,-14.6684598923,6.3576507568,-52.3892784119,22.5232524872,-23.8452453613],[-3.5963175297,-42.0028038025,16.5760726929,-18.7184753418,8.8591995239,-36.4523811340,0.9428917766,-73.0324325562,1.8820885420,-12.5040693283],[23.2151222229,-1.4274477959,9.9738140106,-3.4550735950,-11.5940885544,-25.5133571625,-22.0629634857,-25.4372596741,37.5955123901,14.5633192062],[1.4628833532,5.3588128090,1.1500773430,1.6933240891,1.2167737484,-3.1939895153,0.9890035987,0.8944065571,-2.2130618095,-0.2078638077],[-1.9898794889,-8.9973793030,5.1012296677,3.9675028324,-1.6444443464,3.8948869705,11.6124897003,-1.7259616852,6.0267281532,-0.6654386520],[-2.4531850815,5.1899738312,1.5743358135,-1.4410990477,1.9203760624,5.1940374374,-1.6675585508,2.1016004086,0.5297215581,0.2743886411],[-1.4422550201,0.2482628077,-2.1252465248,-0.5742615461,8.8246431351,2.1129555702,6.4875202179,4.3497524261,-0.0164063945,-0.7059983611],[0.5222012401,3.6408441067,2.5229058266,0.6127015352,-5.4671278000,-2.3429858685,2.3314399719,-1.2839335203,-1.2648248672,2.3968186378],[-6.0650043488,-11.3644151688,13.2531795502,4.1404080391,19.7671127319,-3.4893023968,4.6957798004,-21.7200851440,-9.2422046661,-15.1211509705],[10.7806310654,-12.7477111816,-0.9419965148,-2.6395268440,-2.4793076515,-8.1482601166,-9.2687826157,1.6290332079,13.6948242188,3.0298328400],[7.2281870842,-1.6787790060,4.8339233398,-1.8833669424,-3.2986786366,-1.3814398050,3.8452167511,5.5979561806,-6.1419434547,0.8650333881],[3.2525379658,-0.6820436120,-1.4904828072,-1.7538100481,-5.5349292755,-2.6677234173,-3.4544062614,-3.1495289803,6.5525460243,1.3225423098],[1.7387728691,-1.1325709820,9.0842828751,-2.1242668629,3.1046552658,-10.8113956451,-1.9003847837,-0.5292276144,-4.1223640442,3.1372528076],[-10.8062543869,6.5019664764,-2.2451989651,-1.1251171827,3.1808593273,7.7061076164,9.6536579132,-0.7086872458,-7.7026696205,-11.8640499115],[2.7136349678,7.8948993683,5.4892902374,-1.4709827900,-3.9713354111,-1.1746512651,-0.6266133189,0.1385844201,2.9919779301,-4.2858505249],[2.1855370998,-4.7553753853,7.3116202354,-2.9239442348,-10.6995611191,-0.2871516049,4.0840458870,-1.8899172544,6.9200253487,-1.6713508368],[10.2715959549,-3.2063999176,2.0617442131,-2.6364748478,0.3732542694,-0.8524883986,-2.1592113972,3.8775091171,2.6880729198,-4.7481622696],[4.9359922409,2.0644299984,1.5296682119,4.3701477051,0.6590897441,-2.0327224731,0.7548567653,-0.5031597018,2.2124798298,2.5689718723],[3.7962934971,-5.0124006271,2.3975579739,-4.1047263145,-1.0152288675,-2.1324474812,5.6272077560,-5.3193745613,-12.1044521332,-5.1159086227],[54.6057548523,31.3545703888,-49.8067436218,60.7605667114,-56.4785346985,-58.5845298767,-50.2811050415,-57.5301628113,-46.8841781616,65.7965774536],[-4.8161931038,10.8303680420,2.6619734764,-4.1569018364,1.4863899946,-4.7466259003,1.3674411774,1.7944047451,3.8636088371,3.5722291470],[3.9439170361,3.1584284306,0.0931220800,-4.4115562439,3.6206045151,2.7293195724,4.3907828331,2.5444509983,-6.9137458801,-5.2321767807],[3.6542594433,-3.1698336601,7.8814091682,-2.7581882477,0.7341713905,-3.6568143368,2.0507953167,-3.6431977749,4.5047988892,1.2322963476],[1.8728666306,-7.0871777534,-4.4164443016,-2.6358759403,3.9491641521,-0.8976317048,-5.0368571281,-5.0766477585,2.4936683178,-3.5658202171],[66.3309478760,29.8344783783,-42.7509498596,40.0541610718,-66.2010345459,-63.4614753723,-51.1418533325,-66.9893493652,-42.5363960266,45.1520957947],[-5.2338943481,-2.0504758358,-0.8443629146,-0.2502928078,3.2109608650,2.5321285725,2.5958290100,1.5223678350,6.7740917206,-3.1809680462],[8.0001544952,35.5287475586,-10.4402370453,4.0044898987,-9.7998600006,-4.0702905655,-26.0446491241,-11.2525863647,-38.5651512146,2.6439929008],[0.5737460256,2.8461012840,-4.8919906616,1.3086985350,-4.8967332840,-1.4178996086,-3.7127592564,-0.4369004965,8.2417984009,3.2838976383],[-6.9896054268,2.1406369209,3.8157494068,1.0851204395,7.1495137215,6.0536761284,8.0817203522,2.3132865429,-9.0297174454,-1.1375207901],[57.9534835815,2.6662130356,-52.9355087280,64.7674255371,-55.5167846680,-57.2515258789,-55.7563819885,-57.2810974121,-51.4102172852,62.6219825745],[14.4637441635,16.7659969330,3.5304346085,-13.5928487778,-3.8705928326,-12.0574359894,7.0638346672,-3.9577062130,7.9143309593,-11.0005464554],[3.5385110378,2.8144645691,1.1894810200,0.2249960452,-2.5047254562,-4.2512159348,0.8244759440,-3.9140708447,-0.6665292978,0.9325964451],[0.6019515395,1.1352469921,1.9836510420,-0.4747772217,0.1881226301,-0.8667014241,1.9352446795,-0.1130376905,0.4797256887,-1.0160232782],[1.9985992908,3.0889000893,2.9761366844,-1.4960510731,-1.9828479290,-1.2297292948,1.2181975842,-2.5707507133,-0.2727512419,-1.6722943783],[-5.1949849129,10.1719226837,-6.3355584145,-81.1861190796,1.7709089518,0.3978207707,-17.0561027527,-1.9070781469,11.8329963684,-40.5533180237],[-0.1412021071,0.1085821167,-0.0877770185,0.1845389009,-0.5155721903,-0.0817457810,0.0299288500,0.1374680996,-0.3289017677,-0.4861561656],[0.3088681996,-0.5928385258,-0.4298077226,0.1133730114,0.5578227043,-0.1610973924,-0.7248848081,-0.1001510397,0.7784728408,0.4971588552],[-0.0598687567,-0.0236974061,0.0623160377,0.0275294259,0.0174900256,0.0457965881,-0.0442909561,0.0185537022,0.0282785445,0.0605630018],[-0.0360180549,7.0914564133,-0.4070189595,0.0516947471,0.3019412458,0.2946530282,0.0627555996,0.0598867312,-0.0184007268,0.2399068624],[11.5125131607,2.4321191311,5.4244513512,-4.7414579391,4.1314520836,0.0241848268,-7.1289353371,0.9724053741,27.8248119354,-6.8567047119],[36.2725830078,7.6141719818,-34.4818534851,38.5601043701,-35.1157455444,-35.1958122253,-37.5953369141,-36.4915504456,-35.0507698059,34.8304710388],[10.8033905029,29.4504280090,46.2710609436,6.7980170250,15.8393983841,5.4447107315,3.4566421509,15.4360218048,16.6091537476,-5.0714135170],[-15.3725395203,-7.1177530289,10.9175052643,4.7696251869,-2.5312154293,1.1315890551,9.0674610138,-23.1828918457,-8.7602872849,6.6570715904]]